tree
version=v4
num_class=1
num_tree_per_iteration=1
label_index=0
max_feature_idx=42
objective=regression
feature_names=SPY_returns SPY_return_60d SPY_return_252d SPY_volatility_60d SPY_volatility_252d SPY_sharpe_60d SPY_sharpe_252d SPY_max_drawdown_60d VIX_value DXY_value TNX_10Y_value IRX_3M_value YIELD_SPREAD_value FF_MKT_RF_value FF_SMB_value FF_HML_value USA_avg_return USA_volatility USA_sharpe USA_avg_correlation_60d USA_avg_correlation_252d EUROPA_avg_return EUROPA_volatility EUROPA_sharpe ASIA_PACIFICO_avg_return ASIA_PACIFICO_volatility ASIA_PACIFICO_sharpe EMERGENTES_avg_return EMERGENTES_volatility EMERGENTES_sharpe BONOS_avg_return BONOS_volatility BONOS_sharpe BONOS_avg_correlation_60d BONOS_avg_correlation_252d MATERIAS_PRIMAS_avg_return MATERIAS_PRIMAS_volatility MATERIAS_PRIMAS_sharpe MATERIAS_PRIMAS_avg_correlation_60d MATERIAS_PRIMAS_avg_correlation_252d REAL_ESTATE_avg_return REAL_ESTATE_volatility REAL_ESTATE_sharpe
feature_infos=[-9.8447748463190052:14.519737873670646] [-41.003867042498555:38.732963164428384] [-47.354097684590577:71.942062556668034] [6.5800631297234489:75.972417231597007] [9.5516640658744922:45.759287278277384] [-3.9647439979314902:6.0198420380697932] [-2.2411030706559445:2.694530401728461] [-55.18945310053391:-1.3476284120039865] [-29.572650512161523:64.215247465236217] [-2.6803195937823543:2.555822507215777] [1.4040000438690186:5.2480001449584961] [0.0030000000260770321:5.0450000762939453] [-0.47699975967407227:3.8339999616146088] [-10.179817797384771:14.960365129472885] [-5.8828756038781904:7.3464930045830208] [-3.0612417745577103:3.0742413671156821] [-9.2582624982922592:11.773786582047572] [9.0639035160927364:73.010658770056153] [-87.444405059834182:66.966777372546673] [0.70146894096091639:0.97844993554579529] [0.83630240321853855:0.94588643864172628] [-11.256270606087027:14.190684713887691] [7.2981363879757915:85.342925764907918] [-88.396016257960639:70.218189587828903] [-10.578429107131216:14.988496356462377] [7.3280935868183743:82.151632401399766] [-76.085464612740978:78.229935365016459] [-16.166239831776597:22.769886117096316] [10.040957108989085:132.39663167489221] [-83.287455843496673:70.46702719268005] [-3.430762942957716:4.0135543334232162] [2.8015756307020738:19.228186316018114] [-87.85475826373019:63.280411497661234] [-0.076809797388748685:0.91724305878639834] [0.066392404529264079:0.90840498447041862] [-5.8192186698342221:6.6493506608308399] [7.2277848112158649:48.223550765964092] [-86.998466480550164:68.809824589299353] [0.083428075334689655:0.77240483254901393] [0.30653115568865391:0.68753945195395316] [-19.513735644995357:17.006606536173365] [7.7325194597897378:130.18709591073343] [-77.838100895846367:66.701764060202251]
tree_sizes=1357 1421 1424 1418 1422 1425 1418 1400 1427 1427 1410 1438 1438 1442 1429 1424 1398 1425 1431 1435 1431 1430

Tree=0
num_leaves=15
num_cat=0
split_feature=39 38 31 25 7 3 36 4 1 7 12 1 1 7
split_gain=2094.85 1311.7 1377.94 743.277 718.178 823.72 639.793 782.576 633.09 608.515 550.713 427.355 403.189 320.938
threshold=0.56886277434671173 0.69668180282581327 4.1636183010412742 8.5672435697474416 -9.4244005030827847 10.773896197948703 16.915402536420409 11.521021767076419 0.86751800056412709 -5.3007036085700232 3.5755000077188019 4.9748758050991224 1.7459872928548117 -3.7120665119721239
decision_type=2 2 2 2 2 2 2 2 2 2 2 2 2 2
left_child=1 2 3 -1 10 -6 12 -8 -7 -9 -4 -2 -5 -14
right_child=11 -3 4 6 5 8 7 9 -10 -11 -12 -13 13 -15
leaf_value=0.94429455783439886 0.99365971505092032 1.2011316975022088 1.052139922298676 1.1773379185219022 1.0608374719237526 1.023616617403583 1.1181876574121128 1.0598891355561042 0.93007822058418765 0.91389717934388992 0.92187799678330729 0.92846741236309704 1.0707314302082971 1.159728070224463
leaf_weight=31 438 48 493 86 108 103 84 57 180 45 30 115 128 52
leaf_count=31 438 48 493 86 108 103 84 57 180 45 30 115 128 52
internal_value=1.02948 1.0485 1.04311 1.08405 1.02148 0.990749 1.09387 1.05081 0.963878 0.99528 1.04442 0.979891 1.12367 1.09719
internal_weight=1998 1445 1397 483 914 391 452 186 283 102 523 553 266 180
internal_count=1998 1445 1397 483 914 391 452 186 283 102 523 553 266 180
is_linear=0
shrinkage=1


Tree=1
num_leaves=15
num_cat=0
split_feature=39 31 22 25 3 6 1 19 5 31 6 39 4 1
split_gain=1971.97 1044.26 855.041 710.003 658.139 587.333 525.037 498.953 538.897 505.488 469.415 430.26 561.273 402.306
threshold=0.56886277434671173 4.1636183010412742 20.155728529099292 8.5672435697474416 10.773896197948703 1.8916736468341797 0.77156697458352641 0.88020408915201542 2.8567685220532018 5.7446022508714973 0.92830193093588731 0.54926273176854312 15.515751629055247 4.9748758050991224
decision_type=2 2 2 2 2 2 2 2 2 2 2 2 2 2
left_child=1 3 4 -1 -3 -6 10 8 -4 -9 -5 12 -8 -2
right_child=13 2 7 6 5 -7 11 9 -10 -11 -12 -13 -14 -15
leaf_value=-0.082218505013734094 -0.034257329369920091 0.023442153124729307 -0.10389901919720264 0.057126490473747252 -0.042343753715692392 -0.17358799695968627 0.075584231608754229 0.068352820745831266 0.041433329760301403 0.0064914988232217729 0.19061639699935912 -0.06002459604773791 -0.023209397946484387 -0.097517443250399086
leaf_weight=31 438 122 51 49 228 35 269 229 40 249 49 30 63 115
leaf_count=31 438 122 51 49 228 35 269 229 40 249 49 30 63 115
internal_value=0.000492385 0.0189456 0.000604752 0.0544466 -0.0338407 -0.0605147 0.0638801 0.0239825 -0.0399346 0.0362714 0.125426 0.0468363 0.0567338 -0.0476191
internal_weight=1998 1445 954 491 385 263 460 569 91 478 98 362 332 553
internal_count=1998 1445 954 491 385 263 460 569 91 478 98 362 332 553
is_linear=0
shrinkage=0.03


Tree=2
num_leaves=15
num_cat=0
split_feature=39 38 31 7 3 25 1 4 39 1 5 38 3 6
split_gain=1855.9 1219.84 1166.62 694.873 740.553 656.53 570.52 490.74 601.62 413.492 384.438 348.315 347.312 273.47
threshold=0.56886277434671173 0.70321455322775084 4.1636183010412742 -9.4244005030827847 10.773896197948703 8.5672435697474416 0.86751800056412709 15.16244341079847 0.54926273176854312 0.81966737820495805 -1.8172895351505665 0.73196149758552287 12.484247960816854 1.9436014110668947
decision_type=2 2 2 2 2 2 2 2 2 2 2 2 2 2
left_child=1 2 5 -4 -5 -1 -6 8 9 -7 -2 -12 -9 -8
right_child=10 -3 3 4 6 7 13 12 -10 -11 11 -13 -14 -15
leaf_value=-0.079829033283458556 0.009072443791795174 0.18849293196926245 0.016357181927325267 0.030219464986627802 -0.0049831728583488331 0.16505550631609828 -0.075640460611507296 -0.080314270887644063 -0.061043371558905789 0.073156821184388515 -0.067723195406895378 0.0081639717432803339 0.038127406546492368 -0.17501810587942598
leaf_weight=31 93 36 533 108 103 54 149 30 25 267 398 62 78 31
leaf_count=31 93 36 533 108 103 54 149 30 25 267 398 62 78 31
internal_value=0.000474402 0.0183767 0.0138784 -0.00587702 -0.036227 0.0515118 -0.0617074 0.0607017 0.0780892 0.0891742 -0.0461993 -0.0574343 0.00451672 -0.0937936
internal_weight=1998 1445 1409 924 391 485 283 454 346 321 553 460 108 180
internal_count=1998 1445 1409 924 391 485 283 454 346 321 553 460 108 180
is_linear=0
shrinkage=0.03


Tree=3
num_leaves=15
num_cat=0
split_feature=36 7 3 3 3 10 22 2 38 1 10 1 1 36
split_gain=1055.43 1348.15 1040.82 685.342 598.331 775.2 534.603 903.856 503.877 485.564 445.606 361.649 355.143 338.439
threshold=12.20947634378699 -6.4927141873321723 7.2942670217747505 8.5115815448195722 15.389497557358403 3.7124999761581425 26.032299805549034 21.839675146439223 0.69668180282581327 3.1474570435627407 2.2719999551773076 1.4498100398639304 0.30410896961097228 19.132595934232789
decision_type=2 2 2 2 2 2 2 2 2 2 2 2 2 2
left_child=3 4 13 -1 6 8 7 -2 -6 10 -4 -5 -7 -3
right_child=1 2 9 11 5 12 -8 -9 -10 -11 -12 -13 -14 -15
leaf_value=-0.054583326736930754 0.050961535139178685 0.17189767924222077 -0.076228713193518483 0.16850926836331684 0.0046788088904128949 -0.02146846999999049 0.15934407122433186 -0.055314911792267357 0.12544955420053816 -0.088874415115300406 0.015772132754858052 0.061965412438031525 -0.099115724859518875 0.0072959964931011197
leaf_weight=39 329 21 85 35 554 128 29 91 32 267 104 168 92 24
leaf_count=39 329 21 85 35 554 128 29 91 32 267 104 168 92 24
internal_value=0.000459931 -0.00762991 -0.0491908 0.0590747 0.0089634 -0.00646917 0.0366859 0.027787 0.0115274 -0.0628401 -0.0256294 0.0812181 -0.0543764 0.0868293
internal_weight=1998 1756 501 242 1255 806 449 420 586 456 189 203 220 45
internal_count=1998 1756 501 242 1255 806 449 420 586 456 189 203 220 45
is_linear=0
shrinkage=0.03


Tree=4
num_leaves=15
num_cat=0
split_feature=39 38 31 17 6 12 36 4 17 1 10 1 17 2
split_gain=1690.53 1105.29 1109.73 603.741 572.845 827.369 494.256 652.245 533.873 371.341 354.3 350.563 306.129 192.436
threshold=0.56886277434671173 0.69668180282581327 4.1636183010412742 9.904486566703417 0.83892979391883771 2.6075000725686555 16.915402536420409 11.521021767076419 15.045503240867893 1.7459872928548117 3.6074999570846562 4.9748758050991224 13.564454482291652 42.372192046374927
decision_type=2 2 2 2 2 2 2 2 2 2 2 2 2 2
left_child=1 2 3 -1 -4 12 9 -8 -9 -5 -7 13 -6 -2
right_child=11 -3 4 6 5 10 7 8 -10 -11 -12 -13 -14 -15
leaf_value=-0.09127395852970388 -0.036040535642229782 0.15765148355644576 0.0099930232596294622 0.13468422483781287 -0.12777046153587954 0.030333280737372476 0.080739015156731875 -0.10201701843738555 0.033898453958746459 0.058344513170301593 -0.093124036896228793 -0.090677536840526513 -0.042129366108392539 0.056780430770346092
leaf_weight=25 418 48 608 86 83 126 84 49 53 186 24 115 73 20
leaf_count=25 418 48 608 86 83 126 84 49 53 186 24 115 73 20
internal_value=0.000452591 0.0175394 0.0125944 0.0493333 -0.00682002 -0.0402478 0.0572558 0.0192111 -0.0314596 0.0829962 0.00989553 -0.0440924 -0.0884095 -0.0316141
internal_weight=1998 1445 1397 483 914 306 458 186 102 272 150 553 156 438
internal_count=1998 1445 1397 483 914 306 458 186 102 272 150 553 156 438
is_linear=0
shrinkage=0.03


Tree=5
num_leaves=15
num_cat=0
split_feature=39 38 31 17 7 3 12 4 39 17 2 38 22 3
split_gain=1740.09 885.848 1054.59 625.563 590.8 560.878 457.267 304.95 399.002 357.385 304.616 256.936 245.901 312.556
threshold=0.56857655860709866 0.70209470419789721 4.1698939535101474 9.904486566703417 -9.1009132533956567 10.773896197948703 3.5755000077188019 15.16244341079847 0.54926273176854312 15.045503240867893 26.052229047378876 0.71764271540009594 20.155728529099292 29.129783880992981
decision_type=2 2 2 2 2 2 2 2 2 2 2 2 2 2
left_child=1 2 3 -1 6 -6 12 8 -5 -9 -7 -2 -4 -14
right_child=11 -3 4 7 5 10 -8 9 -10 -11 -12 -13 13 -15
leaf_value=-0.091795327133602556 -0.055608508892070786 0.1642294390996297 -0.026345786450362604 0.077470368785794413 0.024701655265646723 -0.044812343664991906 -0.10115742572936517 -0.062737259595458839 -0.049136029370711189 0.05234303600210418 -0.14571432104033807 -0.0028623635454901623 0.04564755153087223 -0.011633628889297445
leaf_weight=26 441 35 81 345 105 248 28 37 23 66 30 104 316 116
leaf_count=26 441 35 81 345 105 248 28 37 23 66 30 104 316 116
internal_value=4.04119e-05 0.0171726 0.0134164 0.0486144 -0.00551548 -0.0340027 0.0146222 0.0566069 0.0693645 0.0105093 -0.0562918 -0.0456218 0.0211844 0.0302059
internal_weight=2001 1456 1421 497 924 383 541 471 368 103 278 545 513 432
internal_count=2001 1456 1421 497 924 383 541 471 368 103 278 545 513 432
is_linear=0
shrinkage=0.03


Tree=6
num_leaves=15
num_cat=0
split_feature=39 20 38 2 25 10 1 7 3 20 31 19 10 7
split_gain=1637.19 835.15 767.445 732.206 633.74 468.92 447.263 385.107 405.817 373.25 363.227 350.372 284.161 259.048
threshold=0.56857655860709866 0.84760176397800413 0.70209470419789721 22.717474837285838 12.716212291054772 2.711499929428101 1.4498100398639304 -3.2084963337532879 14.476396856728867 0.88412865587823541 3.952924536365932 0.88020408915201542 3.6729999780654912 -4.0041709912049983
decision_type=2 2 2 2 2 2 2 2 2 2 2 2 2 2
left_child=1 -1 3 4 6 10 -3 8 -6 -8 -5 -10 -7 -11
right_child=-2 2 -4 5 7 12 9 -9 11 13 -12 -13 -14 -15
leaf_value=-0.069788265542543318 -0.044258018136114026 0.15432295414866234 0.15943941394488018 -0.0056934222579002377 0.044018532812609264 0.026168495611409132 -0.0037699043766959853 -0.059172780843717708 -0.083186654110367478 0.015800104809596257 -0.14517302950646016 0.010688637424516438 -0.08971749283373355 0.11965905978951764
leaf_weight=93 545 48 35 27 401 91 68 55 38 33 46 430 23 68
leaf_count=93 545 48 35 27 401 91 68 55 38 33 46 430 23 68
internal_value=3.30946e-05 0.0166514 0.0226182 0.0188724 0.0279069 -0.0359482 0.0739696 0.0169884 0.0219057 0.0501974 -0.0947642 0.0028412 0.00195028 0.0865067
internal_weight=2001 1456 1363 1328 1141 187 217 924 869 169 73 468 114 101
internal_count=2001 1456 1363 1328 1141 187 217 924 869 169 73 468 114 101
is_linear=0
shrinkage=0.03


Tree=7
num_leaves=15
num_cat=0
split_feature=39 31 38 17 7 3 1 38 12 33 4 22 12 1
split_gain=1540.6 801.694 979.51 587.184 490.162 485.395 454.819 462.073 406.548 397.834 312.929 368.867 310.152 248.567
threshold=0.56857655860709866 4.1636183010412742 0.69668180282581327 9.904486566703417 -9.1009132533956567 10.773896197948703 0.77156697458352641 0.60880208340441089 3.5755000077188019 0.67217003375772333 10.082037704964783 13.684724115295923 1.6414999701082709 4.9748758050991224
decision_type=2 2 2 2 2 2 2 2 2 2 2 2 2 2
left_child=1 3 4 -1 8 -6 12 10 -3 -7 -8 -12 -5 -2
right_child=13 2 -4 6 5 9 7 -9 -10 -11 11 -13 -14 -15
leaf_value=-0.088822533918751598 -0.031800263144113217 0.018829503838812996 0.14746239492526422 0.064242750279745964 0.022432277286942633 -0.06956086173035432 0.15997930884361267 -0.074877330558053373 -0.096563451062759445 0.020241033444350413 0 0.066064016519551072 0.1787806278169155 -0.080715023986540915
leaf_weight=26 423 507 38 52 107 228 21 28 28 54 120 208 39 122
leaf_count=26 423 507 38 52 107 228 21 28 28 54 120 208 39 122
internal_value=3.16421e-05 0.0161528 0.000158449 0.0471758 -0.00601994 -0.0316243 0.0549685 0.0401168 0.0125654 -0.052248 0.0496159 0.041994 0.115066 -0.0429327
internal_weight=2001 1456 962 494 924 389 468 377 535 282 349 328 91 545
internal_count=2001 1456 962 494 924 389 468 377 535 282 349 328 91 545
is_linear=0
shrinkage=0.03


Tree=8
num_leaves=15
num_cat=0
split_feature=39 31 38 25 7 3 6 12 25 7 41 25 38 36
split_gain=1450.42 754.898 923.044 576.282 461.02 457.2 389.171 383.235 365.244 706.367 368.69 356.201 239.554 345.509
threshold=0.56857655860709866 4.1636183010412742 0.69668180282581327 8.5672435697474416 -9.1009132533956567 10.804188908161011 1.8916736468341797 3.5755000077188019 12.716212291054772 -4.8723093328416214 11.408825045748806 19.868224932378887 0.71764271540009594 21.143413984886376
decision_type=2 2 2 2 2 2 2 2 2 2 2 2 2 2
left_child=1 3 4 -1 7 -6 11 -3 10 -10 -5 -7 -2 -14
right_child=12 2 -4 8 5 6 -8 -9 9 -11 -12 -13 13 -15
leaf_value=-0.077308233756339176 -0.051292280957726463 0.018265730596163977 0.14315195716344392 0.064700749448914879 0.020155565223978024 -0.05731856479777573 -0.15027420893311499 -0.093766441255294042 0.057994481611541394 -0.054662687286618161 0.17247415199875832 0.029112412296912887 0.068898514598608004 -0.042834080943668432
leaf_weight=31 441 507 38 135 112 192 31 28 228 63 37 54 39 65
leaf_count=31 441 507 38 135 112 192 31 28 228 63 37 54 39 65
internal_value=3.48043e-05 0.0156774 0.000155965 0.0457814 -0.00584079 -0.0306731 -0.0513312 0.0121824 0.0542363 0.0333984 0.0889209 -0.0381834 -0.0416526 -0.000391512
internal_weight=2001 1456 962 494 924 389 277 535 463 291 172 246 545 104
internal_count=2001 1456 962 494 924 389 277 535 463 291 172 246 545 104
is_linear=0
shrinkage=0.03


Tree=9
num_leaves=15
num_cat=0
split_feature=39 20 38 2 25 12 1 20 7 3 19 10 7 1
split_gain=1364.87 718.282 651.219 635.891 552.6 444.108 390.428 359.279 346.383 364.873 312.761 249.921 243.296 233.244
threshold=0.56857655860709866 0.84760176397800413 0.70321455322775084 22.717474837285838 12.716212291054772 2.6634999439120297 1.7459872928548117 0.88412865587823541 -3.2084963337532879 14.476396856728867 0.88020408915201542 3.560999989509583 -4.0041709912049983 4.9748758050991224
decision_type=2 2 2 2 2 2 2 2 2 2 2 2 2 2
left_child=1 -1 3 4 6 -5 -3 -8 9 -6 -11 -7 -9 -2
right_child=13 2 -4 5 8 11 7 12 -10 10 -12 -13 -14 -15
leaf_value=-0.064949262326464363 -0.029623199477659994 0.13926192785302796 0.15054055320865967 -0.086721920647003028 0.041213633580151808 0.039529800494398235 -0.0098814305409502517 0.010677745982327244 -0.056609882173527561 -0.079072065899946697 0.0096157567458961535 -0.055726177072838737 0.11221367322718319 -0.076996330308114605
leaf_weight=93 423 53 33 80 402 70 64 32 55 38 431 37 68 122
leaf_count=93 423 53 33 80 402 70 64 32 55 38 431 37 68 122
internal_value=3.44685e-05 0.0152092 0.0207442 0.0173904 0.0257973 -0.0336992 0.0688209 0.0451686 0.0156193 0.0202744 0.00221318 0.00610205 0.0804466 -0.0404044
internal_weight=2001 1456 1363 1330 1143 187 217 164 926 871 469 107 100 545
internal_count=2001 1456 1363 1330 1143 187 217 164 926 871 469 107 100 545
is_linear=0
shrinkage=0.03


Tree=10
num_leaves=15
num_cat=0
split_feature=36 20 25 2 38 4 6 41 17 36 4 5 33 12
split_gain=783.89 932.798 567.844 433.626 404.675 752.362 433.13 381.348 349.789 338.148 296.783 282.948 279.315 363.547
threshold=12.20947634378699 0.89002437597690631 8.5672435697474416 20.653478886148193 0.70209470419789721 21.127818531987284 1.1401018930160085 11.731628047959235 32.615556349914819 14.075464473385486 45.594574891157031 0.59994541028014681 0.1557618915943271 2.0954999923706059
decision_type=2 2 2 2 2 2 2 2 2 2 2 2 2 2
left_child=2 3 -1 7 6 -6 8 -2 10 -9 -3 -4 -11 -14
right_child=1 4 11 -5 5 -7 -8 9 -10 12 -12 -13 13 -15
leaf_value=-0.064316101183316543 0.091899144798517227 0.017324416092580185 0.13753356823107091 -0.091255465612202033 0 0.16784301600605248 -0.048965152076945254 0.034273238766651885 -0.027373471114032686 -0.1038292554751882 0.12517562195658682 0.048856685753970903 -0.055004117786130201 -0.00080570207992387767
leaf_weight=34 23 624 40 105 61 39 122 64 165 52 23 180 246 205
leaf_count=34 23 624 40 105 61 39 122 64 165 52 23 180 246 205
internal_value=-0.00112346 -0.00837561 0.0479642 -0.0352366 0.00966654 0.0667288 0.00346018 -0.0250789 0.0114243 -0.0300302 0.0213919 0.0656649 -0.0383233 -0.0304911
internal_weight=1983 1729 254 695 1034 100 934 590 812 567 647 220 503 451
internal_count=1983 1729 254 695 1034 100 934 590 812 567 647 220 503 451
is_linear=0
shrinkage=0.03


Tree=11
num_leaves=15
num_cat=0
split_feature=39 38 31 5 20 33 38 25 4 36 5 38 36 6
split_gain=1102.15 947.057 697.213 433.261 414.534 339.009 329.856 349.265 299.541 288.613 282.005 333.685 278.462 745.444
threshold=0.56857655860709866 0.70321455322775084 4.1698939535101474 0.81353318124489749 0.84662840181229981 0.1448077196734974 0.61001644495249785 8.5672435697474416 45.594574891157031 20.354604479224772 -1.6881010030797545 0.73196149758552287 11.901572437312955 1.8639577888962509
decision_type=2 2 2 2 2 2 2 2 2 2 2 2 2 2
left_child=1 2 3 5 -4 -1 7 -5 12 -9 -2 -12 -6 -14
right_child=10 -3 4 6 8 -7 -8 9 -10 -11 11 -13 13 -15
leaf_value=-0.010331314033346957 0.0031173370844858176 0.16672338085515159 -0.069349156909643911 -0.062441744046551839 0.086185616195201875 0.10488173496713371 -0.092856954020363369 0.050767764182216145 0.098112800651126431 -0.029522100368048993 -0.05990640638284539 0.017518496846073657 -9.9868568812448328e-05 -0.13307631039619444
leaf_weight=28 117 34 85 34 29 113 21 245 26 47 362 57 746 39
leaf_count=28 117 34 85 34 29 113 21 245 26 47 362 57 746 39
internal_value=-0.00108541 0.0125129 0.00866573 0.0376491 -0.0066167 0.0818796 0.0194066 0.0269919 -0.000158193 0.0376854 -0.0378065 -0.0492856 -0.00345041 -0.00690541
internal_weight=1983 1447 1413 488 925 141 347 326 840 292 536 419 814 785
internal_count=1983 1447 1413 488 925 141 347 326 840 292 536 419 814 785
is_linear=0
shrinkage=0.03


Tree=12
num_leaves=15
num_cat=0
split_feature=39 38 31 1 20 33 38 25 12 38 36 2 5 38
split_gain=1036.98 892.769 655.8 440.992 390.337 319.301 316.981 328.174 283.837 366.691 294.353 686.41 266.372 328.426
threshold=0.56857655860709866 0.70321455322775084 4.1698939535101474 2.2075154867594486 0.84662840181229981 0.1448077196734974 0.61206698439554541 8.5672435697474416 3.6374999806284909 0.60880208340441089 11.901572437312955 20.653478886148193 -1.8172895351505665 0.73196149758552287
decision_type=2 2 2 2 2 2 2 2 2 2 2 2 2 2
left_child=1 2 3 5 -4 -1 7 -5 9 10 -6 -12 -2 -14
right_child=12 -3 4 6 8 -7 -8 -9 -10 -11 11 -13 13 -15
leaf_value=-0.0088494619015338158 0.0077136089573755402 0.16186458516546659 -0.067292873306676396 -0.062275555702748106 0.083686235666275033 0.1049788126823577 -0.091530653292482556 0.035937680187899883 -0.10412280950857246 0.040318328182898704 -0.00041236385117086129 -0.096843570761970782 -0.056816140075441536 0.019167461772843942
leaf_weight=27 98 34 85 33 29 109 21 298 22 181 533 75 380 58
leaf_count=27 98 34 85 33 29 109 21 298 22 181 533 75 380 58
internal_value=-0.00105179 0.0121379 0.00840198 0.0365117 -0.00641879 0.0822619 0.0185675 0.0258976 -0.000150554 0.00273286 -0.00794628 -0.0124964 -0.0366712 -0.0466653
internal_weight=1983 1447 1413 488 925 136 352 331 840 818 637 608 536 438
internal_count=1983 1447 1413 488 925 136 352 331 840 818 637 608 536 438
is_linear=0
shrinkage=0.03


Tree=13
num_leaves=15
num_cat=0
split_feature=39 38 31 1 20 38 34 34 4 5 38 12 38 38
split_gain=975.546 841.62 617.077 415.261 367.489 298.909 310.43 292.034 279.328 251.804 295.608 251.531 280.478 306.04
threshold=0.56857655860709866 0.70321455322775084 4.1698939535101474 2.2075154867594486 0.84662840181229981 0.61206698439554541 0.18538614902788073 0.11170857868950319 45.594574891157031 -1.6881010030797545 0.73196149758552287 3.6374999806284909 0.60880208340441089 0.38283614563616264
decision_type=2 2 2 2 2 2 2 2 2 2 2 2 2 2
left_child=1 2 3 7 -4 6 -5 -1 11 -2 -11 12 13 -6
right_child=9 -3 4 5 8 -7 -8 -9 -10 10 -12 -13 -14 -15
leaf_value=-0.023868674573355488 0.0030875561190611225 0.15714738380057472 -0.065297561361302811 0.091779904795002268 0.022396248855417772 -0.088909547477960579 0.012300116117677784 0.097991571594507262 0.094747268027729453 -0.056414376263206528 0.0164368936869091 -0.10113493824782578 0.033671282082878271 -0.023478431060992032
leaf_weight=20 117 34 85 52 185 21 279 116 26 362 57 22 169 438
leaf_count=20 117 34 85 52 185 21 279 116 26 362 57 22 169 438
internal_value=-0.00102076 0.0117718 0.00814385 0.0354113 -0.00623189 0.0179953 0.0251156 0.0798086 -0.000148797 -0.0355694 -0.0464169 -0.00332922 -0.000450455 -0.0097938
internal_weight=1983 1447 1413 488 925 352 331 136 840 536 419 814 792 623
internal_count=1983 1447 1413 488 925 352 331 136 840 536 419 814 792 623
is_linear=0
shrinkage=0.03


Tree=14
num_leaves=15
num_cat=0
split_feature=39 38 31 1 7 3 1 10 33 38 25 36 5 38
split_gain=918.037 793.324 580.79 390.76 331.086 521.954 448.225 298.135 287.374 281.955 306.461 261.991 237.481 292.093
threshold=0.56857655860709866 0.70321455322775084 4.1698939535101474 2.2075154867594486 -9.4244005030827847 10.833618199019403 3.5359795390023878 2.2719999551773076 0.1448077196734974 0.61206698439554541 8.5672435697474416 20.354604479224772 -1.8172895351505665 0.73196149758552287
decision_type=2 2 2 2 2 2 2 2 2 2 2 2 2 2
left_child=1 2 3 8 -4 -6 7 -7 -1 10 -5 -12 -2 -14
right_child=12 -3 4 9 5 6 -8 -9 -10 -11 11 -13 13 -15
leaf_value=-0.008947489562311341 0.0073928470503200174 0.15256765958241053 0.0088974750816251495 -0.060820388522218251 0.027212769395004756 -0.064170036710798739 -0.10919274380775514 0.010621542864314774 0.098978291281244968 -0.086363499868999827 0.046581324802385644 -0.028503982707741668 -0.053512473314868532 0.01812422334832155
leaf_weight=27 98 34 545 33 110 89 80 101 109 21 249 49 380 58
leaf_count=27 98 34 545 33 110 89 80 101 109 21 249 49 380 58
internal_value=-0.000985745 0.0114236 0.0079006 0.0343544 -0.00604523 -0.027522 -0.0499503 -0.0244079 0.077424 0.0174568 0.0243742 0.0340807 -0.034501 -0.0439383
internal_weight=1983 1447 1413 488 925 380 270 190 136 352 331 298 536 438
internal_count=1983 1447 1413 488 925 380 270 190 136 352 331 298 536 438
is_linear=0
shrinkage=0.03


Tree=15
num_leaves=15
num_cat=0
split_feature=39 38 31 17 36 7 3 5 12 5 33 12 38 36
split_gain=792.008 732.616 665.961 449.316 339.707 312.387 377.411 317.132 314.696 261.94 261.337 242.603 228.687 227.114
threshold=0.56886277434671173 0.69668180282581327 4.1636183010412742 9.904486566703417 20.354604479224772 -9.2602368457241599 10.567182497049343 -0.48159810092613015 3.5755000077188019 -1.8172895351505665 0.72539322498653125 2.6745000164955859 0.72349521647741855 15.612933155826786
decision_type=2 2 2 2 2 2 2 2 2 2 2 2 2 2
left_child=1 2 3 -1 -5 8 -7 -8 -4 -2 -6 13 -11 -9
right_child=9 -3 5 4 10 6 7 11 -10 12 -12 -13 -14 -15
leaf_value=-0.075386955674737688 0.01450027270280585 0.12495176292517605 0.014878515287002424 0.05530226518120851 -0.069973884346453755 0.02545316383432673 0.014487707028165459 -0.10565475177019834 -0.085041608512401584 -0.049280093578451471 0.040420999654497088 0.02633387835489379 0.010210374021983664 -0.041593702011855277
leaf_weight=29 97 50 505 396 37 97 68 89 29 360 38 26 68 122
leaf_count=29 97 50 505 396 37 97 68 89 29 360 38 26 68 122
internal_value=0.00195635 0.0131612 0.00916368 0.0370874 0.0442212 -0.0057445 -0.0257069 -0.0421055 0.00924725 -0.0296665 -0.0138499 -0.0584619 -0.0397566 -0.0691271
internal_weight=2011 1486 1436 500 471 936 402 305 534 525 75 237 428 211
internal_count=2011 1486 1436 500 471 936 402 305 534 525 75 237 428 211
is_linear=0
shrinkage=0.03


Tree=16
num_leaves=15
num_cat=0
split_feature=39 20 6 12 31 36 36 5 36 28 1 11 39 11
split_gain=745.099 484.634 536.628 552.455 383.253 328.258 262.904 246.564 229.395 321.096 309.715 204.431 182.488 357.747
threshold=0.56886277434671173 0.84711916999279124 1.8500724140048874 2.688999935984612 4.1636183010412742 20.354604479224772 8.4061642286440907 -1.8172895351505665 18.818716037312374 33.441799939812817 14.861232404252378 4.7734999656677255 0.52422269266158716 0.11749999970197679
decision_type=2 2 2 2 2 2 2 2 2 2 2 2 2 2
left_child=1 -1 4 6 5 -3 -4 -2 9 -6 12 -7 -10 -14
right_child=7 2 3 -5 8 11 -8 -9 10 -11 -12 -13 13 -15
leaf_value=-0.055880088593473591 0.014069702689136777 0.056187859299908001 0 0.039832036082040174 0.00415081223892509 -0.05129851330309472 -0.12872583697239559 -0.0385645735039786 0.021889989905950775 -0.075199352572413364 -0.060324448614070811 0.044335225274786352 0.14053382538460396 0.0099601492058576605
leaf_weight=86 97 380 20 43 302 46 53 428 358 53 35 34 36 40
leaf_count=86 97 380 20 43 302 46 53 428 358 53 35 34 36 40
internal_value=0.00189706 0.0127655 0.0170406 -0.0444131 0.022646 0.0445733 -0.0943101 -0.0287745 0.0103295 -0.00778952 0.0240956 -0.0102382 0.0310957 0.0732223
internal_weight=2011 1486 1400 116 1284 460 73 525 824 355 469 80 434 76
internal_count=2011 1486 1400 116 1284 460 73 525 824 355 469 80 434 76
is_linear=0
shrinkage=0.03


Tree=17
num_leaves=15
num_cat=0
split_feature=20 12 31 4 7 3 28 5 4 41 41 25 17 22
split_gain=457.606 503.206 402.056 388.985 462.717 420.746 306.661 293.4 292.415 339.653 307.297 262.365 254.619 408.967
threshold=0.88714689579134431 2.0354999706614767 7.4993086502613364 10.082037704964783 -3.6869354718976992 29.129783880992981 35.994656294946303 -0.7586538483271853 14.961424521207798 16.424201164662531 14.404384798890481 12.562927106308736 17.198912260939618 26.032299805549034
decision_type=2 2 2 2 2 2 2 2 2 2 2 2 2 2
left_child=1 7 -3 -2 5 6 8 -1 9 -5 -10 -6 13 -12
right_child=3 2 -4 4 11 -7 -8 -9 10 -11 12 -13 -14 -15
leaf_value=0.0015892656541922512 0.14211940194879261 0.010575593446974564 -0.079510906870876044 0.066684406691036563 0.029906212788820268 -0.024643094358788854 0.072992176113462232 -0.063915019019199243 -0.040391769357956943 -0.061416691115924293 0.024434524184698905 -0.083888830861438127 -0.0026282003176165743 0.1386969524080103
leaf_weight=84 20 492 48 162 24 178 108 220 95 20 208 66 254 32
leaf_count=84 20 492 48 162 24 178 108 220 95 20 208 66 254 32
internal_value=0.001839 -0.0149614 0.00238028 0.0140175 0.0116359 0.0172314 0.0257636 -0.0457709 0.0190231 0.0521847 0.00865426 -0.0532186 0.0182093 0.0403063
internal_weight=2011 844 540 1167 1147 1057 879 304 771 182 589 90 494 240
internal_count=2011 844 540 1167 1147 1057 879 304 771 182 589 90 494 240
is_linear=0
shrinkage=0.03


Tree=18
num_leaves=15
num_cat=0
split_feature=39 38 6 36 12 4 7 12 3 10 20 22 36 5
split_gain=679.615 647.805 421.08 496.849 462.697 420.911 416.114 430.022 358.739 368.417 282.617 253.753 244.018 227.679
threshold=0.56886277434671173 0.70209470419789721 1.8500724140048874 13.296750272168543 2.688999935984612 10.082037704964783 -6.5483193806622255 2.2689999248832469 14.732497235635075 3.7124999761581425 0.87456909185263909 24.815636605596929 8.4061642286440907 -1.8172895351505665
decision_type=2 2 2 2 2 2 2 2 2 2 2 2 2 2
left_child=1 2 3 -1 12 -5 8 -8 -7 10 -10 -12 -4 -2
right_child=13 -3 4 5 -6 6 7 -9 9 -11 11 -13 -14 -15
leaf_value=0.053130218375246334 0.013655537230019667 0.12837045350245069 -0.00019502430622066769 0.13805884744439806 0.03334143608675471 0.0410119227551295 -0.049967368827718822 0.030992942645593925 0.10716962958276272 -0.063638281441510527 -0.034792601034124876 0.017913470299420305 -0.12439026782910029 -0.036914923970654302
leaf_weight=234 97 41 20 20 41 280 215 80 24 72 113 293 53 428
leaf_count=234 97 41 20 20 41 280 215 80 24 72 113 293 53 428
internal_value=0.00178578 0.0121663 0.00876188 0.0135289 -0.0462681 0.00501358 0.00238931 -0.0278801 0.0138674 -0.00126471 0.00923305 0.00312089 -0.091232 -0.0275062
internal_weight=2011 1486 1445 1331 114 1097 1077 295 782 502 430 406 73 525
internal_count=2011 1486 1445 1331 114 1097 1077 295 782 502 430 406 73 525
is_linear=0
shrinkage=0.03


Tree=19
num_leaves=15
num_cat=0
split_feature=39 38 20 41 1 4 4 22 7 12 34 5 5 38
split_gain=639.667 611.969 382.841 375.236 338.678 433.891 317.158 321.089 279.58 265.308 247.072 237.425 214.335 199.284
threshold=0.56886277434671173 0.69668180282581327 0.84662840181229981 19.714122562825107 2.7529328405271229 15.360527649661829 10.0595299242161 14.997000418913586 -22.282976584372694 3.6185000166296963 0.53710078635150038 -1.0800301502264535 -1.8172895351505665 0.72349521647741855
decision_type=2 2 2 2 2 2 2 2 2 2 2 2 2 2
left_child=1 2 -1 4 5 -4 -6 10 9 -5 -8 -10 -2 -14
right_child=12 -3 3 8 6 -7 7 -9 11 -11 -12 -13 13 -15
leaf_value=-0.055994459074697918 0.013250052368610489 0.11398244650924906 0.079378064741129378 0.015871772718670997 0.11457091068159789 0.0059542863619700065 -0.036975198560468256 0.025990076524684998 0.024186930318363008 -0.085939808607101431 0.031915694646867776 -0.058943392781457347 -0.044703777085607896 0.010805053925546615
leaf_weight=78 97 50 177 286 24 124 188 302 39 24 61 133 360 68
leaf_count=78 97 50 177 286 24 124 188 302 39 24 61 133 360 68
internal_value=0.00173688 0.0118081 0.00815276 0.0118978 0.0235956 0.0493496 0.00999953 0.00519104 -0.00930483 0.00764213 -0.0199182 -0.0398898 -0.0266806 -0.0358101
internal_weight=2011 1486 1436 1358 876 301 575 551 482 310 249 172 525 428
internal_count=2011 1486 1436 1358 876 301 575 551 482 310 249 172 525 428
is_linear=0
shrinkage=0.03


Tree=20
num_leaves=15
num_cat=0
split_feature=20 28 4 17 36 7 3 1 41 28 38 12 1 12
split_gain=437.454 474.444 471.911 409.894 412.026 369.162 374.014 362.149 334.42 311.698 304.787 280.077 268.48 292.721
threshold=0.88714689579134431 18.130010296484645 10.0287501054466 10.060631423054295 19.944467596135659 -3.6869354718976992 29.129783880992981 3.5879679601066199 43.696849327748005 36.194423943461949 0.61206698439554541 2.6125000296160583 -3.1092040392783509 2.3694999851286416
decision_type=2 2 2 2 2 2 2 2 2 2 2 2 2 2
left_child=1 3 -2 -1 -5 6 9 8 12 -4 -7 -9 -3 -14
right_child=2 7 5 4 -6 10 -8 11 -10 -11 -12 -13 13 -15
leaf_value=-0.072421304006129505 0.14885631290349091 0.026570500272775084 0.015176602581561539 0.060114384562720696 -0.049068461573467802 -0.017221315547630383 -0.025651028043900927 -0.080184022882604039 -0.11619305756356982 0.070908618864865547 -0.14279372381127398 0.0026846954598403632 -0.043772500110247678 0.030675520645011035
leaf_weight=35 21 138 772 151 38 76 179 167 26 102 22 46 190 62
leaf_count=35 21 138 772 151 38 76 179 167 26 102 22 46 190 62
internal_value=-0.000749077 -0.0170961 0.0111274 0.0202513 0.0378617 0.00846148 0.0136792 -0.030455 -0.0140094 0.0217887 -0.0468717 -0.0622184 -0.00684064 -0.0252885
internal_weight=2025 853 1172 224 189 1151 1053 629 416 874 98 213 390 252
internal_count=2025 853 1172 224 189 1151 1053 629 416 874 98 213 390 252
is_linear=0
shrinkage=0.03


Tree=21
num_leaves=15
num_cat=0
split_feature=36 7 22 25 17 41 10 1 10 1 41 33 19 22
split_gain=379.097 567.192 524.757 454.771 397.369 354.241 412.009 267.505 345.119 254.749 232.163 207.004 251.575 246.563
threshold=12.20947634378699 -6.5483193806622255 9.7776770628977996 8.9459363392180524 10.990883228647329 30.61591126910859 3.6074999570846562 3.1018452711358173 2.2904999256134038 2.1423980400213765 107.88136462873069 0.1883623086902135 0.92532662701913926 26.032299805549034
decision_type=2 2 2 2 2 2 2 2 2 2 2 2 2 2
left_child=3 5 4 -1 -3 11 10 8 -4 -5 -7 12 -2 -13
right_child=1 2 7 9 -6 6 -8 -9 -10 -11 -12 13 -14 -15
leaf_value=-0.055572851737961171 0.072534411559266238 0.14555534191131592 -0.055884656671513898 0.11194662111997604 -0.025376336090266703 0.015425926652077038 -0.046383923001532601 -0.060445623693572315 0.0235295395589732 0.033073552244553162 -0.058673358317031417 0.0025301720398467975 0.00063399844068351755 0.073461656205508166
leaf_weight=41 120 24 93 49 23 325 203 277 102 154 42 454 70 48
leaf_count=41 120 24 93 49 23 325 203 277 102 154 42 454 70 48
internal_value=-0.000729452 -0.00555418 -0.0319301 0.0342436 0.0624969 0.00528591 -0.0121829 -0.0415085 -0.0142838 0.0527144 0.00672798 0.019715 0.0463439 0.00950467
internal_weight=2025 1781 519 244 47 1262 570 472 195 203 367 692 190 502
internal_count=2025 1781 519 244 47 1262 570 472 195 203 367 692 190 502
is_linear=0
shrinkage=0.03


end of trees

feature_importances:
MATERIAS_PRIMAS_avg_correlation_60d=35
SPY_return_60d=27
MATERIAS_PRIMAS_avg_correlation_252d=21
SPY_max_drawdown_60d=20
MATERIAS_PRIMAS_volatility=20
YIELD_SPREAD_value=19
SPY_volatility_60d=18
SPY_volatility_252d=16
BONOS_volatility=16
SPY_sharpe_60d=15
ASIA_PACIFICO_volatility=14
USA_avg_correlation_252d=13
USA_volatility=11
TNX_10Y_value=10
SPY_sharpe_252d=9
EUROPA_volatility=9
REAL_ESTATE_volatility=8
SPY_return_252d=7
BONOS_avg_correlation_60d=7
USA_avg_correlation_60d=4
EMERGENTES_volatility=4
BONOS_avg_correlation_252d=3
IRX_3M_value=2

parameters:
[boosting: gbdt]
[objective: regression]
[metric: rmse]
[tree_learner: serial]
[device_type: cpu]
[data_sample_strategy: bagging]
[data: ]
[valid: ]
[num_iterations: 300]
[learning_rate: 0.03]
[num_leaves: 15]
[num_threads: 0]
[seed: 42]
[deterministic: 0]
[force_col_wise: 0]
[force_row_wise: 0]
[histogram_pool_size: -1]
[max_depth: -1]
[min_data_in_leaf: 20]
[min_sum_hessian_in_leaf: 0.001]
[bagging_fraction: 0.8]
[pos_bagging_fraction: 1]
[neg_bagging_fraction: 1]
[bagging_freq: 5]
[bagging_seed: 400]
[bagging_by_query: 0]
[feature_fraction: 0.8]
[feature_fraction_bynode: 1]
[feature_fraction_seed: 30056]
[extra_trees: 0]
[extra_seed: 12879]
[early_stopping_round: 0]
[early_stopping_min_delta: 0]
[first_metric_only: 0]
[max_delta_step: 0]
[lambda_l1: 1]
[lambda_l2: 1]
[linear_lambda: 0]
[min_gain_to_split: 0]
[drop_rate: 0.1]
[max_drop: 50]
[skip_drop: 0.5]
[xgboost_dart_mode: 0]
[uniform_drop: 0]
[drop_seed: 17869]
[top_rate: 0.2]
[other_rate: 0.1]
[min_data_per_group: 100]
[max_cat_threshold: 32]
[cat_l2: 10]
[cat_smooth: 10]
[max_cat_to_onehot: 4]
[top_k: 20]
[monotone_constraints: ]
[monotone_constraints_method: basic]
[monotone_penalty: 0]
[feature_contri: ]
[forcedsplits_filename: ]
[refit_decay_rate: 0.9]
[cegb_tradeoff: 1]
[cegb_penalty_split: 0]
[cegb_penalty_feature_lazy: ]
[cegb_penalty_feature_coupled: ]
[path_smooth: 0]
[interaction_constraints: ]
[verbosity: -1]
[saved_feature_importance_type: 0]
[use_quantized_grad: 0]
[num_grad_quant_bins: 4]
[quant_train_renew_leaf: 0]
[stochastic_rounding: 1]
[linear_tree: 0]
[max_bin: 255]
[max_bin_by_feature: ]
[min_data_in_bin: 3]
[bin_construct_sample_cnt: 200000]
[data_random_seed: 175]
[is_enable_sparse: 1]
[enable_bundle: 1]
[use_missing: 1]
[zero_as_missing: 0]
[feature_pre_filter: 1]
[pre_partition: 0]
[two_round: 0]
[header: 0]
[label_column: ]
[weight_column: ]
[group_column: ]
[ignore_column: ]
[categorical_feature: ]
[forcedbins_filename: ]
[precise_float_parser: 0]
[parser_config_file: ]
[objective_seed: 16083]
[num_class: 1]
[is_unbalance: 0]
[scale_pos_weight: 1]
[sigmoid: 1]
[boost_from_average: 1]
[reg_sqrt: 0]
[alpha: 0.9]
[fair_c: 1]
[poisson_max_delta_step: 0.7]
[tweedie_variance_power: 1.5]
[lambdarank_truncation_level: 30]
[lambdarank_norm: 1]
[label_gain: ]
[lambdarank_position_bias_regularization: 0]
[eval_at: ]
[multi_error_top_k: 1]
[auc_mu_weights: ]
[num_machines: 1]
[local_listen_port: 12400]
[time_out: 120]
[machine_list_filename: ]
[machines: ]
[gpu_platform_id: -1]
[gpu_device_id: -1]
[gpu_use_dp: 0]
[num_gpu: 1]

end of parameters

pandas_categorical:[]
